
\data\
ngram 1=113
ngram 2=190
ngram 3=2

\1-grams:
-0.6462637		0.09125307
-2.33646	</s>
-99	<s>	0.08227433
-2.33646	ABLE	0.08227433
-1.558308	AND	0.1295801
-2.33646	APPROACH	0.08227433
-2.03543	ARE	0.08486713
-2.33646	BEFORE	-0.01669885
-2.03543	BEST	-0.02485485
-2.33646	BOARD	-0.02687014
-2.03543	BOARDS	-0.01875225
-2.33646	CAN	0.08227433
-1.859339	CANCER	-0.04039418
-2.33646	CARE	-0.02283017
-2.33646	CHOOSE	-0.02687014
-2.33646	CHOOSING	0.08227433
-2.33646	CLIENTS	-0.02485485
-2.33646	COLLABORATE	0.08227433
-2.33646	COOPERATE	-0.02485485
-2.33646	COULD	-0.02687014
-2.33646	DEVICES	-0.020796
-2.33646	DISCIPLINARY	-0.02687014
-1.859339	DOCTORS	0.1034636
-2.33646	DRIVE	-0.02687014
-2.03543	EVER	-0.02485485
-2.33646	EXCITING	0.08227433
-2.33646	EXTENDING	-0.02485485
-1.859339	FOR	0.09806859
-2.33646	FROM	0.006553612
-2.33646	GETTING	-0.02687014
-2.33646	GOING	0.08227433
-2.33646	GREATER	-0.02687014
-2.33646	HAD	0.08227433
-2.03543	HAVE	0.09009966
-2.33646	HELPING	0.08227433
-2.33646	HERE	-0.02687014
-1.7344	HOSPITAL	-0.01047973
-2.33646	HOW	-0.02687014
-2.33646	HUMAN	-0.02687014
-2.33646	IMPACT	-0.02687014
-2.33646	INDUSTRY	-0.01875225
-2.33646	INITIAL	-0.02687014
-2.03543	IT'S	-0.02283016
-2.33646	JUST	-0.02485485
-2.33646	LARGEST	-0.020796
-2.03543	LIVES	0.09806859
-2.33646	MAKING	0.08227433
-2.33646	MANY	-0.02283017
-2.33646	MICROSOFT	-0.02687014
-2.33646	MULTI	-0.02687014
-2.33646	NEED	0.08227433
-2.33646	NEW	-0.02485485
-2.637498	NOISE
-2.33646	NURSES	0.08227433
-2.33646	ONCOLOGIST	0.006553612
-2.03543	ONE	0.08486713
-2.03543	OTHER	-0.020796
-2.33646	OUR	-0.02687014
-2.33646	PARTICIPATION	0.08227433
-2.33646	PAST	-0.02283017
-2.33646	PATIENT	-0.01669885
-1.859339	PATIENTS	0.09806859
-2.33646	PILOTS	-0.02485485
-2.33646	POINT	-0.02485485
-2.33646	POWER	0.08227433
-2.33646	PRACTICE	0.08227433
-2.33646	PROCESS	0.08227433
-2.33646	PROLONG	0.006553612
-2.33646	RADIOLOGIST	-0.02687014
-2.33646	REAL	-0.02687014
-2.03543	REALLY	-0.02485485
-2.33646	REWARDING	-0.02283017
-2.33646	RUN	-0.02687014
-2.33646	SAVE	-0.02485485
-2.33646	SHARE	-0.02687014
-2.33646	SPRING	-0.02687014
-2.33646	SURGEONS	-0.02687014
-2.33646	SYSTEM	0.08227433
-2.33646	SYSTEMS	0.08227433
-2.33646	TEAM	-0.01875225
-2.33646	TEAMS	0.08227433
-2.33646	TECHNOLOGIES	-0.02687014
-2.33646	THAN	-0.020796
-1.63749	THAT	0.095396
-1.106011	THE	0.05139776
-1.859339	THEIR	-0.01875226
-2.33646	THEM	0.08227433
-2.33646	THERE'S	-0.02687014
-1.7344	THEY	-0.0369255
-2.33646	THEY'RE	-0.02687014
-2.03543	THIS	-0.02283016
-2.33646	THREE	-0.02687014
-2.33646	THROUGH	-0.02687014
-2.33646	TIME	0.08227433
-2.33646	TIMES	0.08227433
-2.33646	TOGETHER	0.08227433
-2.33646	TREAT	-0.01875225
-1.859339	TUMOR	-0.04447209
-2.33646	TYPES	0.08227433
-2.33646	USE	0.006553612
-2.637498	UTTERANCE
-2.33646	VALUABLE	-0.02283017
-2.33646	VIRTUAL	-0.02485485
-2.33646	WANTED	0.08227433
-2.03543	WAS	0.0493931
-2.03543	WAY	0.09009966
-2.33646	WHAT	0.08227433
-2.33646	WHEN	-0.02485485
-2.03543	WITH	0.1286067
-2.33646	WORK	-0.02485485
-2.33646	WORKED	0.08227433
-2.03543	YOU	-0.02283016
-2.33646	YOU'RE	-0.02687014

\2-grams:
-0.845098	 	-0.143772
-2.881799	 </s>
-2.881799	 ABLE
-2.881799	 AND
-2.881799	 BEST
-2.881799	 CAN
-2.266775	 CANCER
-2.881799	 CHOOSING
-2.881799	 COLLABORATE
-2.881799	 HAVE
-2.881799	 HOW
-2.881799	 MAKING
-2.881799	 MANY
-2.881799	 MULTI
-2.881799	 NEW
-2.881799	 ONE
-2.881799	 OUR
-2.881799	 REAL
-2.881799	 RUN
-2.881799	 SAVE
-2.881799	 SHARE
-2.881799	 SPRING
-0.6901961	 THE	-0.07058106
-2.266775	 THEIR
-2.266775	 THEY
-2.881799	 THIS
-2.881799	 TREAT
-2.881799	 USE
-2.881799	 VIRTUAL
-2.881799	 WHAT
-2.881799	 WORK
-1.191603	<s> 
-1.191603	ABLE 
-1.969755	AND 
-1.969755	AND IT'S
-1.969755	AND PROLONG
-1.35473	AND THE
-1.969755	AND THEY'RE
-1.191603	APPROACH 
-1.492633	ARE 
-1.492633	ARE SURGEONS
-1.191603	BEFORE AND
-1.492633	BEST CARE
-1.492633	BEST PRACTICE
-1.191603	BOARD PROCESS
-1.492633	BOARDS ARE
-1.492633	BOARDS TUMOR
-1.191603	CAN 
-1.0537	CANCER PATIENTS
-1.668725	CANCER WAS
-1.191603	CARE FOR
-1.191603	CHOOSE COOPERATE
-1.191603	CHOOSING 
-1.191603	CLIENTS WAS
-1.191603	COLLABORATE 
-1.191603	COOPERATE WITH
-1.191603	COULD BEFORE
-1.191603	DEVICES THEY
-1.191603	DISCIPLINARY APPROACH
-1.668725	DOCTORS 
-1.668725	DOCTORS AND
-1.668725	DOCTORS ARE
-1.191603	DRIVE POWER
-1.492633	EVER COULD
-1.492633	EVER HAD
-1.191603	EXCITING 
-1.191603	EXTENDING THIS
-1.668725	FOR 
-1.668725	FOR THAT
-1.668725	FOR THEM
-1.191603	FROM THE
-1.191603	GETTING GREATER
-1.191603	GOING 
-1.191603	GREATER PARTICIPATION
-1.191603	HAD 
-1.492633	HAVE 
-1.492633	HAVE CANCER
-1.191603	HELPING 
-1.191603	HERE HELPING
-1.793663	HOSPITAL AND
-1.793663	HOSPITAL INDUSTRY
-1.793663	HOSPITAL SYSTEM
-1.793663	HOSPITAL SYSTEMS
-1.191603	HOW YOU'RE
-1.191603	HUMAN IMPACT
-1.191603	IMPACT HERE
-1.191603	INDUSTRY THAT
-1.191603	INITIAL PILOTS
-1.492633	IT'S JUST
-1.492633	IT'S REALLY
-1.191603	JUST REALLY
-1.191603	LARGEST HOSPITAL
-1.492633	LIVES 
-1.492633	LIVES AND
-1.191603	MAKING 
-1.191603	MANY PATIENTS
-1.191603	MICROSOFT TECHNOLOGIES
-1.191603	MULTI DISCIPLINARY
-1.191603	NEED 
-1.191603	NEW WAY
-1.191603	NURSES 
-1.191603	ONCOLOGIST THE
-1.492633	ONE 
-1.492633	ONE DRIVE
-1.492633	OTHER DOCTORS
-1.492633	OTHER TYPES
-1.191603	OUR CLIENTS
-1.191603	PARTICIPATION 
-1.191603	PAST THEIR
-1.191603	PATIENT AND
-1.668725	PATIENTS 
-1.668725	PATIENTS THAT
-1.668725	PATIENTS THROUGH
-1.191603	PILOTS OTHER
-1.191603	POINT ONE
-1.191603	POWER 
-1.191603	PRACTICE 
-1.191603	PROCESS 
-1.191603	PROLONG THE
-1.191603	RADIOLOGIST THAN
-1.191603	REAL HUMAN
-1.492633	REALLY EXCITING
-1.492633	REALLY REWARDING
-1.191603	REWARDING FOR
-1.191603	RUN THREE
-1.191603	SAVE LIVES
-1.191603	SHARE POINT
-1.191603	SPRING TOGETHER
-1.191603	SURGEONS RADIOLOGIST
-1.191603	SYSTEM 
-1.191603	SYSTEMS 
-1.191603	TEAM THAT
-1.191603	TEAMS 
-1.191603	TECHNOLOGIES TEAMS
-1.191603	THAN THEY
-1.890573	THAT 
-1.890573	THAT PATIENT
-1.890573	THAT WHEN
-1.890573	THAT WORKED
-1.890573	THAT YOU
-2.422052	THE 
-2.422052	THE BEST
-2.422052	THE DEVICES
-1.807027	THE DOCTORS
-0.7533277	THE HOSPITAL
-2.422052	THE INITIAL
-2.422052	THE LARGEST
-2.422052	THE LIVES
-2.422052	THE MICROSOFT
-2.422052	THE NURSES
-2.422052	THE ONCOLOGIST
-2.422052	THE OTHER
-2.422052	THE PAST
-2.422052	THE TEAM
-1.668725	THEIR EXTENDING
-1.668725	THEIR TIME
-1.668725	THEIR TUMOR
-1.191603	THEM 
-1.191603	THERE'S VALUABLE
-1.793663	THEY CHOOSE
-1.178638	THEY EVER
-1.793663	THEY WANTED
-1.191603	THEY'RE GETTING
-1.492633	THIS FROM
-1.492633	THIS IT'S
-1.191603	THREE TIMES
-1.191603	THROUGH THERE'S
-1.191603	TIME 
-1.191603	TIMES 
-1.191603	TOGETHER 
-1.191603	TREAT THAT
-1.668725	TUMOR BOARD
-1.0537	TUMOR BOARDS
-1.191603	TYPES 
-1.191603	USE THE
-1.191603	VALUABLE TUMOR
-1.191603	VIRTUAL WAY
-1.191603	WANTED 
-0.8776085	WAS 
-1.492633	WAY 
-1.492633	WAY FOR
-1.191603	WHAT 
-1.191603	WHEN YOU
-1.492633	WITH 
-1.492633	WITH THE
-1.191603	WORK WITH
-1.191603	WORKED 
-1.492633	YOU HAVE
-1.492633	YOU NEED
-1.191603	YOU'RE GOING

\3-grams:
-0.544068	  THEIR
-0.5228788	 THE HOSPITAL

\end\
